digraph Tree {
node [shape=box, style="filled, rounded", color="black", fontname=helvetica] ;
edge [fontname=helvetica] ;
0 [label=<Fjob &le; 3.5<br/>gini = 0.3324<br/>samples = 722<br/>value = [570, 152]<br/>class = Perished>, fillcolor="#e58139bb"] ;
1 [label=<famsup &le; 0.5<br/>gini = 0.1619<br/>samples = 439<br/>value = [400, 39]<br/>class = Perished>, fillcolor="#e58139e6"] ;
0 -> 1 [labeldistance=2.5, labelangle=45, headlabel="True"] ;
2 [label=<famsize &le; 20.5<br/>gini = 0.0802<br/>samples = 263<br/>value = [252, 11]<br/>class = Perished>, fillcolor="#e58139f4"] ;
1 -> 2 ;
3 [label=<studytime &le; 1.5<br/>gini = 0.0671<br/>samples = 259<br/>value = [250, 9]<br/>class = Perished>, fillcolor="#e58139f6"] ;
2 -> 3 ;
4 [label=<gini = 0.233<br/>samples = 52<br/>value = [45, 7]<br/>class = Perished>, fillcolor="#e58139d7"] ;
3 -> 4 ;
5 [label=<higher &le; 0.5<br/>gini = 0.0191<br/>samples = 207<br/>value = [205, 2]<br/>class = Perished>, fillcolor="#e58139fd"] ;
3 -> 5 ;
6 [label=<gini = 0.1975<br/>samples = 18<br/>value = [16, 2]<br/>class = Perished>, fillcolor="#e58139df"] ;
5 -> 6 ;
7 [label=<gini = 0.0<br/>samples = 189<br/>value = [189, 0]<br/>class = Perished>, fillcolor="#e58139ff"] ;
5 -> 7 ;
8 [label=<gini = 0.5<br/>samples = 4<br/>value = [2, 2]<br/>class = Perished>, fillcolor="#e5813900"] ;
2 -> 8 ;
9 [label=<school &le; 10.25<br/>gini = 0.2676<br/>samples = 176<br/>value = [148, 28]<br/>class = Perished>, fillcolor="#e58139cf"] ;
1 -> 9 ;
10 [label=<age &le; 9.75<br/>gini = 0.3432<br/>samples = 100<br/>value = [78, 22]<br/>class = Perished>, fillcolor="#e58139b7"] ;
9 -> 10 ;
11 [label=<gini = 0.2975<br/>samples = 88<br/>value = [72, 16]<br/>class = Perished>, fillcolor="#e58139c6"] ;
10 -> 11 ;
12 [label=<gini = 0.5<br/>samples = 12<br/>value = [6, 6]<br/>class = Perished>, fillcolor="#e5813900"] ;
10 -> 12 ;
13 [label=<gini = 0.1454<br/>samples = 76<br/>value = [70, 6]<br/>class = Perished>, fillcolor="#e58139e9"] ;
9 -> 13 ;
14 [label=<famsup &le; 0.5<br/>gini = 0.4797<br/>samples = 283<br/>value = [170, 113]<br/>class = Perished>, fillcolor="#e5813956"] ;
0 -> 14 [labeldistance=2.5, labelangle=-45, headlabel="False"] ;
15 [label=<Fedu &le; 3.5<br/>gini = 0.3072<br/>samples = 153<br/>value = [124, 29]<br/>class = Perished>, fillcolor="#e58139c3"] ;
14 -> 15 ;
16 [label=<gini = 0.4844<br/>samples = 34<br/>value = [20, 14]<br/>class = Perished>, fillcolor="#e581394d"] ;
15 -> 16 ;
17 [label=<failures &le; 2.5<br/>gini = 0.2203<br/>samples = 119<br/>value = [104, 15]<br/>class = Perished>, fillcolor="#e58139da"] ;
15 -> 17 ;
18 [label=<famsize &le; 4.5<br/>gini = 0.183<br/>samples = 108<br/>value = [97, 11]<br/>class = Perished>, fillcolor="#e58139e2"] ;
17 -> 18 ;
19 [label=<gini = 0.2397<br/>samples = 79<br/>value = [68, 11]<br/>class = Perished>, fillcolor="#e58139d6"] ;
18 -> 19 ;
20 [label=<gini = 0.0<br/>samples = 29<br/>value = [29, 0]<br/>class = Perished>, fillcolor="#e58139ff"] ;
18 -> 20 ;
21 [label=<gini = 0.4628<br/>samples = 11<br/>value = [7, 4]<br/>class = Perished>, fillcolor="#e581396d"] ;
17 -> 21 ;
22 [label=<Fedu &le; 3.5<br/>gini = 0.4573<br/>samples = 130<br/>value = [46, 84]<br/>class = Survived>, fillcolor="#399de573"] ;
14 -> 22 ;
23 [label=<gini = 0.142<br/>samples = 26<br/>value = [2, 24]<br/>class = Survived>, fillcolor="#399de5ea"] ;
22 -> 23 ;
24 [label=<goout &le; 0.5<br/>gini = 0.4882<br/>samples = 104<br/>value = [44, 60]<br/>class = Survived>, fillcolor="#399de544"] ;
22 -> 24 ;
25 [label=<gini = 0.4964<br/>samples = 59<br/>value = [32, 27]<br/>class = Perished>, fillcolor="#e5813928"] ;
24 -> 25 ;
26 [label=<gini = 0.3911<br/>samples = 45<br/>value = [12, 33]<br/>class = Survived>, fillcolor="#399de5a2"] ;
24 -> 26 ;
}